%YAML:1.0
---
opencv_ml_ann_mlp:
   format: 3
   layer_sizes: [ 2, 10, 1 ]
   activation_function: SIGMOID_SYM
   f_param1: 6.6666666666666663e-01
   f_param2: 1.7159000000000000e+00
   min_val: -9.4999999999999996e-01
   max_val: 9.4999999999999996e-01
   min_val1: -9.7999999999999998e-01
   max_val1: 9.7999999999999998e-01
   training_params:
      train_method: BACKPROP
      dw_scale: 1.0000000000000001e-01
      moment_scale: 1.0000000000000001e-01
      term_criteria:
         iterations: 10000
   input_scale:
      - 5.5120673412255728e-03
      - -1.4725094182988316e+00
      - 6.5482073812698069e-03
      - -1.1459362917222162e+00
   output_scale:
      - 1.0526315789473684e+00
      - 9.9999999999999989e-01
   inv_output_scale:
      - 9.4999999999999996e-01
      - -9.4999999999999996e-01
   weights:
      -
         - -1.7423636760935688e+00
         - 1.6677439769897751e-01
         - 9.1958882465078540e-01
         - 4.7243881091379308e-01
         - -1.7869883243931414e-01
         - -6.5585339091818229e-01
         - -7.2412284096562141e-01
         - -1.7096080967069780e+00
         - 3.8708475788825553e-01
         - -2.8483422681753345e+00
         - 6.3508511838546262e-03
         - -1.1339974746678878e+00
         - -4.8663842664987716e-01
         - 4.9985204433650149e-01
         - -8.0895227983095508e-01
         - -1.5862708625720329e-01
         - -3.9967536021509731e-01
         - -6.5669493527106049e-01
         - -7.4873587413937803e-01
         - 2.9588631253199114e+00
         - 7.0051028465957255e-01
         - 6.6706421167248553e-01
         - 1.0137157159236915e-01
         - -8.3082180271770723e-03
         - 1.8773371019252758e-01
         - -7.7234185889444237e-02
         - 1.5574016192572432e-01
         - -1.4465573938274985e+00
         - 1.3002051950741722e-01
         - 1.6177555533282145e-01
      -
         - -1.2304582353322371e+00
         - 1.1019877565797629e+00
         - 1.9953650785751867e-01
         - 8.4635237030199137e-02
         - 5.1053687631643885e-01
         - -5.1690149864324653e-01
         - -2.5540892550349287e-01
         - 1.2891671222292489e+00
         - 6.1369780299663501e-01
         - 1.9986667475076885e+00
         - 1.3803245824526200e-01
